digraph Tree {
node [shape=box, style="filled, rounded", color="black", fontname=helvetica] ;
edge [fontname=helvetica] ;
0 [label="dJB <= 19.22\ngini = 0.705\nsamples = 280\nvalue = [77, 30, 112, 61]\nclass = Gardien2v2", fillcolor="#399de52c"] ;
1 [label="dBoC <= 29.525\ngini = 0.601\nsamples = 119\nvalue = [67, 17, 29, 6]\nclass = ControlDribble", fillcolor="#e581396c"] ;
0 -> 1 [labeldistance=2.5, labelangle=45, headlabel="True"] ;
2 [label="angleGoal <= 0.987\ngini = 0.575\nsamples = 23\nvalue = [4, 14, 3, 2]\nclass = DribbleShoot", fillcolor="#47e53986"] ;
1 -> 2 ;
3 [label="dJB <= 16.258\ngini = 0.394\nsamples = 17\nvalue = [1, 13, 1, 2]\nclass = DribbleShoot", fillcolor="#47e539bb"] ;
2 -> 3 ;
4 [label="dBmC <= 126.644\ngini = 0.133\nsamples = 14\nvalue = [1, 13, 0, 0]\nclass = DribbleShoot", fillcolor="#47e539eb"] ;
3 -> 4 ;
5 [label="gini = 0.5\nsamples = 2\nvalue = [1, 1, 0, 0]\nclass = ControlDribble", fillcolor="#e5813900"] ;
4 -> 5 ;
6 [label="gini = 0.0\nsamples = 12\nvalue = [0, 12, 0, 0]\nclass = DribbleShoot", fillcolor="#47e539ff"] ;
4 -> 6 ;
7 [label="gini = 0.444\nsamples = 3\nvalue = [0, 0, 1, 2]\nclass = GoToMyGoal", fillcolor="#d739e57f"] ;
3 -> 7 ;
8 [label="dTMB <= 19.019\ngini = 0.611\nsamples = 6\nvalue = [3, 1, 2, 0]\nclass = ControlDribble", fillcolor="#e5813940"] ;
2 -> 8 ;
9 [label="gini = 0.0\nsamples = 3\nvalue = [3, 0, 0, 0]\nclass = ControlDribble", fillcolor="#e58139ff"] ;
8 -> 9 ;
10 [label="gini = 0.444\nsamples = 3\nvalue = [0, 1, 2, 0]\nclass = Gardien2v2", fillcolor="#399de57f"] ;
8 -> 10 ;
11 [label="dTMB <= 9.127\ngini = 0.493\nsamples = 96\nvalue = [63, 3, 26, 4]\nclass = ControlDribble", fillcolor="#e5813987"] ;
1 -> 11 ;
12 [label="dTMoC <= 51.961\ngini = 0.443\nsamples = 17\nvalue = [4, 0, 12, 1]\nclass = Gardien2v2", fillcolor="#399de59d"] ;
11 -> 12 ;
13 [label="gini = 0.0\nsamples = 2\nvalue = [2, 0, 0, 0]\nclass = ControlDribble", fillcolor="#e58139ff"] ;
12 -> 13 ;
14 [label="dTMDef <= 16.34\ngini = 0.338\nsamples = 15\nvalue = [2, 0, 12, 1]\nclass = Gardien2v2", fillcolor="#399de5c4"] ;
12 -> 14 ;
15 [label="angleGoal <= 0.201\ngini = 0.571\nsamples = 7\nvalue = [2, 0, 4, 1]\nclass = Gardien2v2", fillcolor="#399de566"] ;
14 -> 15 ;
16 [label="angleGoal <= 0.055\ngini = 0.625\nsamples = 4\nvalue = [2, 0, 1, 1]\nclass = ControlDribble", fillcolor="#e5813955"] ;
15 -> 16 ;
17 [label="gini = 0.5\nsamples = 2\nvalue = [0, 0, 1, 1]\nclass = Gardien2v2", fillcolor="#399de500"] ;
16 -> 17 ;
18 [label="gini = 0.0\nsamples = 2\nvalue = [2, 0, 0, 0]\nclass = ControlDribble", fillcolor="#e58139ff"] ;
16 -> 18 ;
19 [label="gini = 0.0\nsamples = 3\nvalue = [0, 0, 3, 0]\nclass = Gardien2v2", fillcolor="#399de5ff"] ;
15 -> 19 ;
20 [label="gini = 0.0\nsamples = 8\nvalue = [0, 0, 8, 0]\nclass = Gardien2v2", fillcolor="#399de5ff"] ;
14 -> 20 ;
21 [label="doNearoC <= 44.45\ngini = 0.408\nsamples = 79\nvalue = [59, 3, 14, 3]\nclass = ControlDribble", fillcolor="#e58139b1"] ;
11 -> 21 ;
22 [label="angleGoal <= 0.45\ngini = 0.649\nsamples = 21\nvalue = [9, 3, 8, 1]\nclass = ControlDribble", fillcolor="#e5813914"] ;
21 -> 22 ;
23 [label="dJB <= 3.68\ngini = 0.512\nsamples = 11\nvalue = [1, 3, 7, 0]\nclass = Gardien2v2", fillcolor="#399de580"] ;
22 -> 23 ;
24 [label="gini = 0.0\nsamples = 3\nvalue = [0, 3, 0, 0]\nclass = DribbleShoot", fillcolor="#47e539ff"] ;
23 -> 24 ;
25 [label="dTMDef <= 5.23\ngini = 0.219\nsamples = 8\nvalue = [1, 0, 7, 0]\nclass = Gardien2v2", fillcolor="#399de5db"] ;
23 -> 25 ;
26 [label="gini = 0.5\nsamples = 2\nvalue = [1, 0, 1, 0]\nclass = ControlDribble", fillcolor="#e5813900"] ;
25 -> 26 ;
27 [label="gini = 0.0\nsamples = 6\nvalue = [0, 0, 6, 0]\nclass = Gardien2v2", fillcolor="#399de5ff"] ;
25 -> 27 ;
28 [label="dTMB <= 40.111\ngini = 0.34\nsamples = 10\nvalue = [8, 0, 1, 1]\nclass = ControlDribble", fillcolor="#e58139c6"] ;
22 -> 28 ;
29 [label="gini = 0.0\nsamples = 8\nvalue = [8, 0, 0, 0]\nclass = ControlDribble", fillcolor="#e58139ff"] ;
28 -> 29 ;
30 [label="gini = 0.5\nsamples = 2\nvalue = [0, 0, 1, 1]\nclass = Gardien2v2", fillcolor="#399de500"] ;
28 -> 30 ;
31 [label="doNearoC <= 108.043\ngini = 0.245\nsamples = 58\nvalue = [50, 0, 6, 2]\nclass = ControlDribble", fillcolor="#e58139d8"] ;
21 -> 31 ;
32 [label="dBoC <= 80.345\ngini = 0.132\nsamples = 43\nvalue = [40, 0, 2, 1]\nclass = ControlDribble", fillcolor="#e58139ec"] ;
31 -> 32 ;
33 [label="gini = 0.0\nsamples = 23\nvalue = [23, 0, 0, 0]\nclass = ControlDribble", fillcolor="#e58139ff"] ;
32 -> 33 ;
34 [label="dBmC <= 67.307\ngini = 0.265\nsamples = 20\nvalue = [17, 0, 2, 1]\nclass = ControlDribble", fillcolor="#e58139d4"] ;
32 -> 34 ;
35 [label="gini = 0.0\nsamples = 15\nvalue = [15, 0, 0, 0]\nclass = ControlDribble", fillcolor="#e58139ff"] ;
34 -> 35 ;
36 [label="dTMDef <= 29.655\ngini = 0.64\nsamples = 5\nvalue = [2, 0, 2, 1]\nclass = ControlDribble", fillcolor="#e5813900"] ;
34 -> 36 ;
37 [label="gini = 0.444\nsamples = 3\nvalue = [0, 0, 2, 1]\nclass = Gardien2v2", fillcolor="#399de57f"] ;
36 -> 37 ;
38 [label="gini = 0.0\nsamples = 2\nvalue = [2, 0, 0, 0]\nclass = ControlDribble", fillcolor="#e58139ff"] ;
36 -> 38 ;
39 [label="doNearoC <= 118.001\ngini = 0.48\nsamples = 15\nvalue = [10, 0, 4, 1]\nclass = ControlDribble", fillcolor="#e581398b"] ;
31 -> 39 ;
40 [label="angleGoal <= 0.069\ngini = 0.5\nsamples = 6\nvalue = [1, 0, 4, 1]\nclass = Gardien2v2", fillcolor="#399de599"] ;
39 -> 40 ;
41 [label="gini = 0.5\nsamples = 2\nvalue = [1, 0, 0, 1]\nclass = ControlDribble", fillcolor="#e5813900"] ;
40 -> 41 ;
42 [label="gini = 0.0\nsamples = 4\nvalue = [0, 0, 4, 0]\nclass = Gardien2v2", fillcolor="#399de5ff"] ;
40 -> 42 ;
43 [label="gini = 0.0\nsamples = 9\nvalue = [9, 0, 0, 0]\nclass = ControlDribble", fillcolor="#e58139ff"] ;
39 -> 43 ;
44 [label="dTMDef <= 42.583\ngini = 0.607\nsamples = 161\nvalue = [10, 13, 83, 55]\nclass = Gardien2v2", fillcolor="#399de543"] ;
0 -> 44 [labeldistance=2.5, labelangle=-45, headlabel="False"] ;
45 [label="dJDef <= 57.584\ngini = 0.514\nsamples = 120\nvalue = [9, 7, 79, 25]\nclass = Gardien2v2", fillcolor="#399de591"] ;
44 -> 45 ;
46 [label="dJB <= 30.963\ngini = 0.543\nsamples = 80\nvalue = [9, 1, 49, 21]\nclass = Gardien2v2", fillcolor="#399de579"] ;
45 -> 46 ;
47 [label="dJB <= 22.9\ngini = 0.444\nsamples = 49\nvalue = [3, 1, 35, 10]\nclass = Gardien2v2", fillcolor="#399de5a3"] ;
46 -> 47 ;
48 [label="dJmC <= 89.995\ngini = 0.59\nsamples = 23\nvalue = [3, 0, 12, 8]\nclass = Gardien2v2", fillcolor="#399de544"] ;
47 -> 48 ;
49 [label="dTMoC <= 110.901\ngini = 0.642\nsamples = 9\nvalue = [3, 0, 2, 4]\nclass = GoToMyGoal", fillcolor="#d739e52a"] ;
48 -> 49 ;
50 [label="gini = 0.0\nsamples = 2\nvalue = [2, 0, 0, 0]\nclass = ControlDribble", fillcolor="#e58139ff"] ;
49 -> 50 ;
51 [label="dJmC <= 32.121\ngini = 0.571\nsamples = 7\nvalue = [1, 0, 2, 4]\nclass = GoToMyGoal", fillcolor="#d739e566"] ;
49 -> 51 ;
52 [label="dJDef <= 39.971\ngini = 0.625\nsamples = 4\nvalue = [1, 0, 2, 1]\nclass = Gardien2v2", fillcolor="#399de555"] ;
51 -> 52 ;
53 [label="gini = 0.0\nsamples = 2\nvalue = [0, 0, 2, 0]\nclass = Gardien2v2", fillcolor="#399de5ff"] ;
52 -> 53 ;
54 [label="gini = 0.5\nsamples = 2\nvalue = [1, 0, 0, 1]\nclass = ControlDribble", fillcolor="#e5813900"] ;
52 -> 54 ;
55 [label="gini = 0.0\nsamples = 3\nvalue = [0, 0, 0, 3]\nclass = GoToMyGoal", fillcolor="#d739e5ff"] ;
51 -> 55 ;
56 [label="dTMDef <= 9.301\ngini = 0.408\nsamples = 14\nvalue = [0, 0, 10, 4]\nclass = Gardien2v2", fillcolor="#399de599"] ;
48 -> 56 ;
57 [label="dBoC <= 33.404\ngini = 0.375\nsamples = 4\nvalue = [0, 0, 1, 3]\nclass = GoToMyGoal", fillcolor="#d739e5aa"] ;
56 -> 57 ;
58 [label="gini = 0.0\nsamples = 2\nvalue = [0, 0, 0, 2]\nclass = GoToMyGoal", fillcolor="#d739e5ff"] ;
57 -> 58 ;
59 [label="gini = 0.5\nsamples = 2\nvalue = [0, 0, 1, 1]\nclass = Gardien2v2", fillcolor="#399de500"] ;
57 -> 59 ;
60 [label="angleGoal <= 0.126\ngini = 0.18\nsamples = 10\nvalue = [0, 0, 9, 1]\nclass = Gardien2v2", fillcolor="#399de5e3"] ;
56 -> 60 ;
61 [label="gini = 0.444\nsamples = 3\nvalue = [0, 0, 2, 1]\nclass = Gardien2v2", fillcolor="#399de57f"] ;
60 -> 61 ;
62 [label="gini = 0.0\nsamples = 7\nvalue = [0, 0, 7, 0]\nclass = Gardien2v2", fillcolor="#399de5ff"] ;
60 -> 62 ;
63 [label="doNearoC <= 47.763\ngini = 0.21\nsamples = 26\nvalue = [0, 1, 23, 2]\nclass = Gardien2v2", fillcolor="#399de5df"] ;
47 -> 63 ;
64 [label="dTMoC <= 50.428\ngini = 0.531\nsamples = 8\nvalue = [0, 1, 5, 2]\nclass = Gardien2v2", fillcolor="#399de580"] ;
63 -> 64 ;
65 [label="dJDef <= 23.802\ngini = 0.278\nsamples = 6\nvalue = [0, 1, 5, 0]\nclass = Gardien2v2", fillcolor="#399de5cc"] ;
64 -> 65 ;
66 [label="gini = 0.0\nsamples = 4\nvalue = [0, 0, 4, 0]\nclass = Gardien2v2", fillcolor="#399de5ff"] ;
65 -> 66 ;
67 [label="gini = 0.5\nsamples = 2\nvalue = [0, 1, 1, 0]\nclass = DribbleShoot", fillcolor="#47e53900"] ;
65 -> 67 ;
68 [label="gini = 0.0\nsamples = 2\nvalue = [0, 0, 0, 2]\nclass = GoToMyGoal", fillcolor="#d739e5ff"] ;
64 -> 68 ;
69 [label="gini = 0.0\nsamples = 18\nvalue = [0, 0, 18, 0]\nclass = Gardien2v2", fillcolor="#399de5ff"] ;
63 -> 69 ;
70 [label="dBmC <= 110.32\ngini = 0.633\nsamples = 31\nvalue = [6, 0, 14, 11]\nclass = Gardien2v2", fillcolor="#399de526"] ;
46 -> 70 ;
71 [label="dJB <= 34.476\ngini = 0.57\nsamples = 25\nvalue = [2, 0, 12, 11]\nclass = Gardien2v2", fillcolor="#399de512"] ;
70 -> 71 ;
72 [label="gini = 0.444\nsamples = 3\nvalue = [2, 0, 0, 1]\nclass = ControlDribble", fillcolor="#e581397f"] ;
71 -> 72 ;
73 [label="dTMoC <= 64.026\ngini = 0.496\nsamples = 22\nvalue = [0, 0, 12, 10]\nclass = Gardien2v2", fillcolor="#399de52a"] ;
71 -> 73 ;
74 [label="gini = 0.0\nsamples = 4\nvalue = [0, 0, 4, 0]\nclass = Gardien2v2", fillcolor="#399de5ff"] ;
73 -> 74 ;
75 [label="dTMDef <= 11.082\ngini = 0.494\nsamples = 18\nvalue = [0, 0, 8, 10]\nclass = GoToMyGoal", fillcolor="#d739e533"] ;
73 -> 75 ;
76 [label="dBmC <= 58.149\ngini = 0.245\nsamples = 7\nvalue = [0, 0, 1, 6]\nclass = GoToMyGoal", fillcolor="#d739e5d4"] ;
75 -> 76 ;
77 [label="gini = 0.5\nsamples = 2\nvalue = [0, 0, 1, 1]\nclass = Gardien2v2", fillcolor="#399de500"] ;
76 -> 77 ;
78 [label="gini = 0.0\nsamples = 5\nvalue = [0, 0, 0, 5]\nclass = GoToMyGoal", fillcolor="#d739e5ff"] ;
76 -> 78 ;
79 [label="dJB <= 38.56\ngini = 0.463\nsamples = 11\nvalue = [0, 0, 7, 4]\nclass = Gardien2v2", fillcolor="#399de56d"] ;
75 -> 79 ;
80 [label="gini = 0.0\nsamples = 3\nvalue = [0, 0, 3, 0]\nclass = Gardien2v2", fillcolor="#399de5ff"] ;
79 -> 80 ;
81 [label="dJB <= 40.602\ngini = 0.5\nsamples = 8\nvalue = [0, 0, 4, 4]\nclass = Gardien2v2", fillcolor="#399de500"] ;
79 -> 81 ;
82 [label="gini = 0.0\nsamples = 3\nvalue = [0, 0, 0, 3]\nclass = GoToMyGoal", fillcolor="#d739e5ff"] ;
81 -> 82 ;
83 [label="gini = 0.32\nsamples = 5\nvalue = [0, 0, 4, 1]\nclass = Gardien2v2", fillcolor="#399de5bf"] ;
81 -> 83 ;
84 [label="angleGoal <= 0.11\ngini = 0.444\nsamples = 6\nvalue = [4, 0, 2, 0]\nclass = ControlDribble", fillcolor="#e581397f"] ;
70 -> 84 ;
85 [label="gini = 0.0\nsamples = 3\nvalue = [3, 0, 0, 0]\nclass = ControlDribble", fillcolor="#e58139ff"] ;
84 -> 85 ;
86 [label="gini = 0.444\nsamples = 3\nvalue = [1, 0, 2, 0]\nclass = Gardien2v2", fillcolor="#399de57f"] ;
84 -> 86 ;
87 [label="angleGoal <= 0.091\ngini = 0.405\nsamples = 40\nvalue = [0, 6, 30, 4]\nclass = Gardien2v2", fillcolor="#399de5b4"] ;
45 -> 87 ;
88 [label="dTMB <= 4.65\ngini = 0.349\nsamples = 38\nvalue = [0, 6, 30, 2]\nclass = Gardien2v2", fillcolor="#399de5bf"] ;
87 -> 88 ;
89 [label="dTMB <= 2.42\ngini = 0.611\nsamples = 12\nvalue = [0, 4, 6, 2]\nclass = Gardien2v2", fillcolor="#399de540"] ;
88 -> 89 ;
90 [label="gini = 0.0\nsamples = 4\nvalue = [0, 0, 4, 0]\nclass = Gardien2v2", fillcolor="#399de5ff"] ;
89 -> 90 ;
91 [label="dJmC <= 0.973\ngini = 0.625\nsamples = 8\nvalue = [0, 4, 2, 2]\nclass = DribbleShoot", fillcolor="#47e53955"] ;
89 -> 91 ;
92 [label="gini = 0.444\nsamples = 3\nvalue = [0, 0, 1, 2]\nclass = GoToMyGoal", fillcolor="#d739e57f"] ;
91 -> 92 ;
93 [label="dJmC <= 10.07\ngini = 0.32\nsamples = 5\nvalue = [0, 4, 1, 0]\nclass = DribbleShoot", fillcolor="#47e539bf"] ;
91 -> 93 ;
94 [label="gini = 0.5\nsamples = 2\nvalue = [0, 1, 1, 0]\nclass = DribbleShoot", fillcolor="#47e53900"] ;
93 -> 94 ;
95 [label="gini = 0.0\nsamples = 3\nvalue = [0, 3, 0, 0]\nclass = DribbleShoot", fillcolor="#47e539ff"] ;
93 -> 95 ;
96 [label="dTMB <= 33.263\ngini = 0.142\nsamples = 26\nvalue = [0, 2, 24, 0]\nclass = Gardien2v2", fillcolor="#399de5ea"] ;
88 -> 96 ;
97 [label="gini = 0.0\nsamples = 20\nvalue = [0, 0, 20, 0]\nclass = Gardien2v2", fillcolor="#399de5ff"] ;
96 -> 97 ;
98 [label="dJDef <= 67.74\ngini = 0.444\nsamples = 6\nvalue = [0, 2, 4, 0]\nclass = Gardien2v2", fillcolor="#399de57f"] ;
96 -> 98 ;
99 [label="gini = 0.0\nsamples = 3\nvalue = [0, 0, 3, 0]\nclass = Gardien2v2", fillcolor="#399de5ff"] ;
98 -> 99 ;
100 [label="gini = 0.444\nsamples = 3\nvalue = [0, 2, 1, 0]\nclass = DribbleShoot", fillcolor="#47e5397f"] ;
98 -> 100 ;
101 [label="gini = 0.0\nsamples = 2\nvalue = [0, 0, 0, 2]\nclass = GoToMyGoal", fillcolor="#d739e5ff"] ;
87 -> 101 ;
102 [label="dTMDef <= 100.917\ngini = 0.433\nsamples = 41\nvalue = [1, 6, 4, 30]\nclass = GoToMyGoal", fillcolor="#d739e5af"] ;
44 -> 102 ;
103 [label="dTMDef <= 49.62\ngini = 0.321\nsamples = 37\nvalue = [0, 5, 2, 30]\nclass = GoToMyGoal", fillcolor="#d739e5c7"] ;
102 -> 103 ;
104 [label="gini = 0.444\nsamples = 3\nvalue = [0, 2, 0, 1]\nclass = DribbleShoot", fillcolor="#47e5397f"] ;
103 -> 104 ;
105 [label="angleGoal <= 0.128\ngini = 0.261\nsamples = 34\nvalue = [0, 3, 2, 29]\nclass = GoToMyGoal", fillcolor="#d739e5d6"] ;
103 -> 105 ;
106 [label="dTMDef <= 64.831\ngini = 0.184\nsamples = 30\nvalue = [0, 2, 1, 27]\nclass = GoToMyGoal", fillcolor="#d739e5e4"] ;
105 -> 106 ;
107 [label="dTMoC <= 106.545\ngini = 0.34\nsamples = 10\nvalue = [0, 1, 1, 8]\nclass = GoToMyGoal", fillcolor="#d739e5c6"] ;
106 -> 107 ;
108 [label="angleGoal <= 0.103\ngini = 0.219\nsamples = 8\nvalue = [0, 1, 0, 7]\nclass = GoToMyGoal", fillcolor="#d739e5db"] ;
107 -> 108 ;
109 [label="gini = 0.0\nsamples = 6\nvalue = [0, 0, 0, 6]\nclass = GoToMyGoal", fillcolor="#d739e5ff"] ;
108 -> 109 ;
110 [label="gini = 0.5\nsamples = 2\nvalue = [0, 1, 0, 1]\nclass = DribbleShoot", fillcolor="#47e53900"] ;
108 -> 110 ;
111 [label="gini = 0.5\nsamples = 2\nvalue = [0, 0, 1, 1]\nclass = Gardien2v2", fillcolor="#399de500"] ;
107 -> 111 ;
112 [label="dTMDef <= 81.871\ngini = 0.095\nsamples = 20\nvalue = [0, 1, 0, 19]\nclass = GoToMyGoal", fillcolor="#d739e5f2"] ;
106 -> 112 ;
113 [label="gini = 0.0\nsamples = 15\nvalue = [0, 0, 0, 15]\nclass = GoToMyGoal", fillcolor="#d739e5ff"] ;
112 -> 113 ;
114 [label="dTMB <= 45.514\ngini = 0.32\nsamples = 5\nvalue = [0, 1, 0, 4]\nclass = GoToMyGoal", fillcolor="#d739e5bf"] ;
112 -> 114 ;
115 [label="gini = 0.5\nsamples = 2\nvalue = [0, 1, 0, 1]\nclass = DribbleShoot", fillcolor="#47e53900"] ;
114 -> 115 ;
116 [label="gini = 0.0\nsamples = 3\nvalue = [0, 0, 0, 3]\nclass = GoToMyGoal", fillcolor="#d739e5ff"] ;
114 -> 116 ;
117 [label="gini = 0.625\nsamples = 4\nvalue = [0, 1, 1, 2]\nclass = GoToMyGoal", fillcolor="#d739e555"] ;
105 -> 117 ;
118 [label="dJmC <= 28.002\ngini = 0.625\nsamples = 4\nvalue = [1, 1, 2, 0]\nclass = Gardien2v2", fillcolor="#399de555"] ;
102 -> 118 ;
119 [label="gini = 0.5\nsamples = 2\nvalue = [1, 1, 0, 0]\nclass = ControlDribble", fillcolor="#e5813900"] ;
118 -> 119 ;
120 [label="gini = 0.0\nsamples = 2\nvalue = [0, 0, 2, 0]\nclass = Gardien2v2", fillcolor="#399de5ff"] ;
118 -> 120 ;
}