digraph Tree {
node [shape=box, style="filled, rounded", color="black", fontname=helvetica] ;
edge [fontname=helvetica] ;
0 [label="doNearoC <= 70.656\ngini = 0.678\nsamples = 133\nvalue = [57, 7, 37, 32]\nclass = ControlDribble", fillcolor="#e5813935"] ;
1 [label="dTMoC <= 77.872\ngini = 0.416\nsamples = 47\nvalue = [7, 1, 35, 4]\nclass = DribbleShoot", fillcolor="#399de5b2"] ;
0 -> 1 [labeldistance=2.5, labelangle=45, headlabel="True"] ;
2 [label="doNearoC <= 52.77\ngini = 0.671\nsamples = 17\nvalue = [7, 1, 6, 3]\nclass = ControlDribble", fillcolor="#e5813917"] ;
1 -> 2 ;
3 [label="dTMB <= 8.462\ngini = 0.531\nsamples = 8\nvalue = [0, 1, 5, 2]\nclass = DribbleShoot", fillcolor="#399de580"] ;
2 -> 3 ;
4 [label="dTMDef <= 1.913\ngini = 0.625\nsamples = 4\nvalue = [0, 1, 1, 2]\nclass = PassiveSituation", fillcolor="#d739e555"] ;
3 -> 4 ;
5 [label="gini = 0.5\nsamples = 2\nvalue = [0, 1, 1, 0]\nclass = Defense", fillcolor="#47e53900"] ;
4 -> 5 ;
6 [label="gini = 0.0\nsamples = 2\nvalue = [0, 0, 0, 2]\nclass = PassiveSituation", fillcolor="#d739e5ff"] ;
4 -> 6 ;
7 [label="gini = 0.0\nsamples = 4\nvalue = [0, 0, 4, 0]\nclass = DribbleShoot", fillcolor="#399de5ff"] ;
3 -> 7 ;
8 [label="dTMoC <= 60.084\ngini = 0.37\nsamples = 9\nvalue = [7, 0, 1, 1]\nclass = ControlDribble", fillcolor="#e58139bf"] ;
2 -> 8 ;
9 [label="gini = 0.0\nsamples = 5\nvalue = [5, 0, 0, 0]\nclass = ControlDribble", fillcolor="#e58139ff"] ;
8 -> 9 ;
10 [label="angleGoal <= 0.314\ngini = 0.625\nsamples = 4\nvalue = [2, 0, 1, 1]\nclass = ControlDribble", fillcolor="#e5813955"] ;
8 -> 10 ;
11 [label="gini = 0.5\nsamples = 2\nvalue = [0, 0, 1, 1]\nclass = DribbleShoot", fillcolor="#399de500"] ;
10 -> 11 ;
12 [label="gini = 0.0\nsamples = 2\nvalue = [2, 0, 0, 0]\nclass = ControlDribble", fillcolor="#e58139ff"] ;
10 -> 12 ;
13 [label="dTMDef <= 88.041\ngini = 0.064\nsamples = 30\nvalue = [0, 0, 29, 1]\nclass = DribbleShoot", fillcolor="#399de5f6"] ;
1 -> 13 ;
14 [label="gini = 0.0\nsamples = 28\nvalue = [0, 0, 28, 0]\nclass = DribbleShoot", fillcolor="#399de5ff"] ;
13 -> 14 ;
15 [label="gini = 0.5\nsamples = 2\nvalue = [0, 0, 1, 1]\nclass = DribbleShoot", fillcolor="#399de500"] ;
13 -> 15 ;
16 [label="angleGoal <= 0.254\ngini = 0.551\nsamples = 86\nvalue = [50, 6, 2, 28]\nclass = ControlDribble", fillcolor="#e5813961"] ;
0 -> 16 [labeldistance=2.5, labelangle=-45, headlabel="False"] ;
17 [label="dBoC <= 116.02\ngini = 0.604\nsamples = 66\nvalue = [30, 6, 2, 28]\nclass = ControlDribble", fillcolor="#e581390d"] ;
16 -> 17 ;
18 [label="dJDef <= 1.055\ngini = 0.299\nsamples = 23\nvalue = [0, 3, 1, 19]\nclass = PassiveSituation", fillcolor="#d739e5cc"] ;
17 -> 18 ;
19 [label="gini = 0.5\nsamples = 2\nvalue = [0, 1, 1, 0]\nclass = Defense", fillcolor="#47e53900"] ;
18 -> 19 ;
20 [label="dTMB <= 19.409\ngini = 0.172\nsamples = 21\nvalue = [0, 2, 0, 19]\nclass = PassiveSituation", fillcolor="#d739e5e4"] ;
18 -> 20 ;
21 [label="gini = 0.0\nsamples = 12\nvalue = [0, 0, 0, 12]\nclass = PassiveSituation", fillcolor="#d739e5ff"] ;
20 -> 21 ;
22 [label="dJDef <= 6.924\ngini = 0.346\nsamples = 9\nvalue = [0, 2, 0, 7]\nclass = PassiveSituation", fillcolor="#d739e5b6"] ;
20 -> 22 ;
23 [label="gini = 0.0\nsamples = 2\nvalue = [0, 2, 0, 0]\nclass = Defense", fillcolor="#47e539ff"] ;
22 -> 23 ;
24 [label="gini = 0.0\nsamples = 7\nvalue = [0, 0, 0, 7]\nclass = PassiveSituation", fillcolor="#d739e5ff"] ;
22 -> 24 ;
25 [label="doNearoC <= 125.699\ngini = 0.464\nsamples = 43\nvalue = [30, 3, 1, 9]\nclass = ControlDribble", fillcolor="#e581399e"] ;
17 -> 25 ;
26 [label="dTMB <= 11.981\ngini = 0.133\nsamples = 28\nvalue = [26, 0, 0, 2]\nclass = ControlDribble", fillcolor="#e58139eb"] ;
25 -> 26 ;
27 [label="dJDef <= 1.606\ngini = 0.48\nsamples = 5\nvalue = [3, 0, 0, 2]\nclass = ControlDribble", fillcolor="#e5813955"] ;
26 -> 27 ;
28 [label="gini = 0.0\nsamples = 3\nvalue = [3, 0, 0, 0]\nclass = ControlDribble", fillcolor="#e58139ff"] ;
27 -> 28 ;
29 [label="gini = 0.0\nsamples = 2\nvalue = [0, 0, 0, 2]\nclass = PassiveSituation", fillcolor="#d739e5ff"] ;
27 -> 29 ;
30 [label="gini = 0.0\nsamples = 23\nvalue = [23, 0, 0, 0]\nclass = ControlDribble", fillcolor="#e58139ff"] ;
26 -> 30 ;
31 [label="dTMoC <= 110.216\ngini = 0.667\nsamples = 15\nvalue = [4, 3, 1, 7]\nclass = PassiveSituation", fillcolor="#d739e546"] ;
25 -> 31 ;
32 [label="gini = 0.0\nsamples = 3\nvalue = [0, 3, 0, 0]\nclass = Defense", fillcolor="#47e539ff"] ;
31 -> 32 ;
33 [label="dBoC <= 136.097\ngini = 0.542\nsamples = 12\nvalue = [4, 0, 1, 7]\nclass = PassiveSituation", fillcolor="#d739e560"] ;
31 -> 33 ;
34 [label="gini = 0.0\nsamples = 5\nvalue = [0, 0, 0, 5]\nclass = PassiveSituation", fillcolor="#d739e5ff"] ;
33 -> 34 ;
35 [label="dJmC <= 20.35\ngini = 0.571\nsamples = 7\nvalue = [4, 0, 1, 2]\nclass = ControlDribble", fillcolor="#e5813966"] ;
33 -> 35 ;
36 [label="doNearoC <= 146.612\ngini = 0.625\nsamples = 4\nvalue = [1, 0, 1, 2]\nclass = PassiveSituation", fillcolor="#d739e555"] ;
35 -> 36 ;
37 [label="gini = 0.0\nsamples = 2\nvalue = [0, 0, 0, 2]\nclass = PassiveSituation", fillcolor="#d739e5ff"] ;
36 -> 37 ;
38 [label="gini = 0.5\nsamples = 2\nvalue = [1, 0, 1, 0]\nclass = ControlDribble", fillcolor="#e5813900"] ;
36 -> 38 ;
39 [label="gini = 0.0\nsamples = 3\nvalue = [3, 0, 0, 0]\nclass = ControlDribble", fillcolor="#e58139ff"] ;
35 -> 39 ;
40 [label="gini = 0.0\nsamples = 20\nvalue = [20, 0, 0, 0]\nclass = ControlDribble", fillcolor="#e58139ff"] ;
16 -> 40 ;
}